<?xml version="1.0"?>
<opencv_storage>
<stage3>
  <maxWeakCount>12</maxWeakCount>
  <stageThreshold>-1.0873070955276489e+00</stageThreshold>
  <weakClassifiers>
    <_>
      <internalNodes>
        0 -1 157617 -3.7783622741699219e-02</internalNodes>
      <leafValues>
        -8.6147183179855347e-01 -2.7100271545350552e-03</leafValues></_>
    <_>
      <internalNodes>
        0 -1 113729 -4.7719217836856842e-02</internalNodes>
      <leafValues>
        7.8365069627761841e-01 -3.2070085406303406e-01</leafValues></_>
    <_>
      <internalNodes>
        0 -1 26612 -5.4638877511024475e-02</internalNodes>
      <leafValues>
        8.6732441186904907e-01 -1.7834177613258362e-01</leafValues></_>
    <_>
      <internalNodes>
        0 -1 13304 -4.2308427393436432e-02</internalNodes>
      <leafValues>
        -1. 1.9606016576290131e-01</leafValues></_>
    <_>
      <internalNodes>
        0 -1 71464 8.5951620712876320e-03</internalNodes>
      <leafValues>
        -2.9724171757698059e-01 7.3957908153533936e-01</leafValues></_>
    <_>
      <internalNodes>
        0 -1 39 -1.1931097134947777e-02</internalNodes>
      <leafValues>
        8.3160090446472168e-01 -2.0519010722637177e-01</leafValues></_>
    <_>
      <internalNodes>
        0 -1 161500 8.4601566195487976e-03</internalNodes>
      <leafValues>
        -1.9199505448341370e-01 6.2891483306884766e-01</leafValues></_>
    <_>
      <internalNodes>
        0 -1 161367 -9.6011515706777573e-03</internalNodes>
      <leafValues>
        8.6513447761535645e-01 -2.0982424914836884e-01</leafValues></_>
    <_>
      <internalNodes>
        0 -1 106761 4.1624316945672035e-03</internalNodes>
      <leafValues>
        -1.1610683053731918e-01 8.2349032163619995e-01</leafValues></_>
    <_>
      <internalNodes>
        0 -1 89806 -3.5023442469537258e-03</internalNodes>
      <leafValues>
        7.0020055770874023e-01 -1.9393956661224365e-01</leafValues></_>
    <_>
      <internalNodes>
        0 -1 123 -3.1138535588979721e-02</internalNodes>
      <leafValues>
        7.9721528291702271e-01 -1.6863107681274414e-01</leafValues></_>
    <_>
      <internalNodes>
        0 -1 159357 -9.6276658587157726e-04</internalNodes>
      <leafValues>
        7.4803864955902100e-01 -2.1959595382213593e-01</leafValues></_></weakClassifiers></stage3>
</opencv_storage>
