<?xml version="1.0"?>
<opencv_storage>
<stage1>
  <maxWeakCount>7</maxWeakCount>
  <stageThreshold>-1.6296975612640381e+00</stageThreshold>
  <weakClassifiers>
    <_>
      <internalNodes>
        0 -1 50242 2.9102273285388947e-02</internalNodes>
      <leafValues>
        -5.5331993103027344e-01 7.2815531492233276e-01</leafValues></_>
    <_>
      <internalNodes>
        0 -1 161667 5.5996510200202465e-03</internalNodes>
      <leafValues>
        -3.6669871211051941e-01 8.5411077737808228e-01</leafValues></_>
    <_>
      <internalNodes>
        0 -1 25733 -4.9456410109996796e-02</internalNodes>
      <leafValues>
        -7.5479209423065186e-01 3.7953284382820129e-01</leafValues></_>
    <_>
      <internalNodes>
        0 -1 157688 -4.1895173490047455e-03</internalNodes>
      <leafValues>
        6.3850557804107666e-01 -4.2205995321273804e-01</leafValues></_>
    <_>
      <internalNodes>
        0 -1 43 -8.4442384541034698e-03</internalNodes>
      <leafValues>
        8.2899248600006104e-01 -2.4506880342960358e-01</leafValues></_>
    <_>
      <internalNodes>
        0 -1 38708 4.0263910777866840e-03</internalNodes>
      <leafValues>
        -2.1272106468677521e-01 7.0150202512741089e-01</leafValues></_>
    <_>
      <internalNodes>
        0 -1 107310 -1.5140663832426071e-02</internalNodes>
      <leafValues>
        8.4073281288146973e-01 -2.9584655165672302e-01</leafValues></_></weakClassifiers></stage1>
</opencv_storage>
