<?xml version="1.0"?>
<opencv_storage>
<stage16>
  <maxWeakCount>15</maxWeakCount>
  <stageThreshold>-1.1214050054550171e+00</stageThreshold>
  <weakClassifiers>
    <_>
      <internalNodes>
        0 -1 143780 1.3153593987226486e-02</internalNodes>
      <leafValues>
        -4.4621515274047852e-01 2.4489796161651611e-01</leafValues></_>
    <_>
      <internalNodes>
        0 -1 161616 -3.2665892504155636e-03</internalNodes>
      <leafValues>
        3.4498134255409241e-01 -2.0725776255130768e-01</leafValues></_>
    <_>
      <internalNodes>
        0 -1 38301 1.1654057307168841e-03</internalNodes>
      <leafValues>
        -2.8750100731849670e-01 2.5413826107978821e-01</leafValues></_>
    <_>
      <internalNodes>
        0 -1 150528 -2.7926051989197731e-03</internalNodes>
      <leafValues>
        -7.9504263401031494e-01 8.8194496929645538e-02</leafValues></_>
    <_>
      <internalNodes>
        0 -1 38748 -6.8210437893867493e-03</internalNodes>
      <leafValues>
        5.3730040788650513e-01 -1.2514790892601013e-01</leafValues></_>
    <_>
      <internalNodes>
        0 -1 107041 6.1590655241161585e-04</internalNodes>
      <leafValues>
        -3.1727913022041321e-01 2.4338243901729584e-01</leafValues></_>
    <_>
      <internalNodes>
        0 -1 44372 3.7087327800691128e-03</internalNodes>
      <leafValues>
        -1.7290221154689789e-01 4.6265730261802673e-01</leafValues></_>
    <_>
      <internalNodes>
        0 -1 65560 -1.0068062692880630e-03</internalNodes>
      <leafValues>
        -5.2185106277465820e-01 1.8344654142856598e-01</leafValues></_>
    <_>
      <internalNodes>
        0 -1 4114 -1.1750081554055214e-02</internalNodes>
      <leafValues>
        5.9799081087112427e-01 -1.4313836395740509e-01</leafValues></_>
    <_>
      <internalNodes>
        0 -1 11881 -2.3467840219382197e-04</internalNodes>
      <leafValues>
        -4.7709658741950989e-01 1.6262339055538177e-01</leafValues></_>
    <_>
      <internalNodes>
        0 -1 158970 -3.2834861427545547e-02</internalNodes>
      <leafValues>
        8.1325083971023560e-01 -8.3854466676712036e-02</leafValues></_>
    <_>
      <internalNodes>
        0 -1 139102 -8.4493332542479038e-04</internalNodes>
      <leafValues>
        3.7935620546340942e-01 -2.4181324243545532e-01</leafValues></_>
    <_>
      <internalNodes>
        0 -1 141361 -1.1328184045851231e-03</internalNodes>
      <leafValues>
        -4.0349078178405762e-01 1.9654525816440582e-01</leafValues></_>
    <_>
      <internalNodes>
        0 -1 128204 1.6283005243167281e-03</internalNodes>
      <leafValues>
        -1.7936661839485168e-01 3.8776165246963501e-01</leafValues></_>
    <_>
      <internalNodes>
        0 -1 121723 -5.2439318969845772e-03</internalNodes>
      <leafValues>
        4.7490355372428894e-01 -1.5787956118583679e-01</leafValues></_></weakClassifiers></stage16>
</opencv_storage>
