<?xml version="1.0"?>
<opencv_storage>
<stage5>
  <maxWeakCount>9</maxWeakCount>
  <stageThreshold>-1.0937113761901855e+00</stageThreshold>
  <weakClassifiers>
    <_>
      <internalNodes>
        0 -1 3404 7.1788385510444641e-02</internalNodes>
      <leafValues>
        -5.3711789846420288e-01 3.2394367456436157e-01</leafValues></_>
    <_>
      <internalNodes>
        0 -1 38912 -9.3211382627487183e-02</internalNodes>
      <leafValues>
        8.1972384452819824e-01 -2.2552651166915894e-01</leafValues></_>
    <_>
      <internalNodes>
        0 -1 127940 -3.1157575547695160e-02</internalNodes>
      <leafValues>
        -8.1328332424163818e-01 2.0283986628055573e-01</leafValues></_>
    <_>
      <internalNodes>
        0 -1 906 1.4991472475230694e-02</internalNodes>
      <leafValues>
        -3.3495900034904480e-01 5.7197058200836182e-01</leafValues></_>
    <_>
      <internalNodes>
        0 -1 10657 -3.6441378295421600e-02</internalNodes>
      <leafValues>
        6.8310940265655518e-01 -2.4227857589721680e-01</leafValues></_>
    <_>
      <internalNodes>
        0 -1 66124 3.0846739537082613e-04</internalNodes>
      <leafValues>
        2.5530344247817993e-01 -5.4242861270904541e-01</leafValues></_>
    <_>
      <internalNodes>
        0 -1 112808 2.1957101125735790e-04</internalNodes>
      <leafValues>
        1.8439793586730957e-01 -6.4092040061950684e-01</leafValues></_>
    <_>
      <internalNodes>
        0 -1 49561 5.7087442837655544e-04</internalNodes>
      <leafValues>
        2.8470996022224426e-01 -4.4899043440818787e-01</leafValues></_>
    <_>
      <internalNodes>
        0 -1 126089 2.8293021023273468e-03</internalNodes>
      <leafValues>
        1.4359508454799652e-01 -8.0873650312423706e-01</leafValues></_></weakClassifiers></stage5>
</opencv_storage>
