<?xml version="1.0"?>
<opencv_storage>
<stage10>
  <maxWeakCount>11</maxWeakCount>
  <stageThreshold>-9.9437707662582397e-01</stageThreshold>
  <weakClassifiers>
    <_>
      <internalNodes>
        0 -1 114383 -4.2176973074674606e-03</internalNodes>
      <leafValues>
        3.4065935015678406e-01 -4.5383104681968689e-01</leafValues></_>
    <_>
      <internalNodes>
        0 -1 121820 -3.6286309361457825e-02</internalNodes>
      <leafValues>
        5.6942379474639893e-01 -1.9729807972908020e-01</leafValues></_>
    <_>
      <internalNodes>
        0 -1 2178 -1.0527065023779869e-02</internalNodes>
      <leafValues>
        5.1137161254882813e-01 -1.7120143771171570e-01</leafValues></_>
    <_>
      <internalNodes>
        0 -1 845 1.4962193369865417e-01</internalNodes>
      <leafValues>
        1.5147286653518677e-01 -6.7052090167999268e-01</leafValues></_>
    <_>
      <internalNodes>
        0 -1 162100 -1.2647404219023883e-04</internalNodes>
      <leafValues>
        -3.9644253253936768e-01 2.5099855661392212e-01</leafValues></_>
    <_>
      <internalNodes>
        0 -1 127558 1.7090454697608948e-02</internalNodes>
      <leafValues>
        -1.9290310144424438e-01 4.9969047307968140e-01</leafValues></_>
    <_>
      <internalNodes>
        0 -1 157064 -3.3776134252548218e-02</internalNodes>
      <leafValues>
        7.3249495029449463e-01 -1.3529071211814880e-01</leafValues></_>
    <_>
      <internalNodes>
        0 -1 80 2.3608335759490728e-03</internalNodes>
      <leafValues>
        -2.0082363486289978e-01 4.6422183513641357e-01</leafValues></_>
    <_>
      <internalNodes>
        0 -1 126861 1.5287930727936327e-04</internalNodes>
      <leafValues>
        1.8637940287590027e-01 -5.8118391036987305e-01</leafValues></_>
    <_>
      <internalNodes>
        0 -1 29518 -1.1981323768850416e-04</internalNodes>
      <leafValues>
        -4.0782687067985535e-01 2.0291234552860260e-01</leafValues></_>
    <_>
      <internalNodes>
        0 -1 60516 -1.7712305998429656e-04</internalNodes>
      <leafValues>
        2.8395459055900574e-01 -2.9537156224250793e-01</leafValues></_></weakClassifiers></stage10>
</opencv_storage>
